digraph Tree {
node [shape=box, style="filled, rounded", color="black", fontname=helvetica] ;
edge [fontname=helvetica] ;
0 [label="ram <= 2217.0\ngini = 0.627\nsamples = 1245\nvalue = [503, 507, 990]\nclass = Low Cost", fillcolor="#d6bff7"] ;
1 [label="px_height <= 1192.5\ngini = 0.588\nsamples = 660\nvalue = [503, 454, 114]\nclass = Medium Cost", fillcolor="#fdf5ef"] ;
0 -> 1 [labeldistance=2.5, labelangle=45, headlabel="True"] ;
2 [label="px_width <= 1011.5\ngini = 0.563\nsamples = 576\nvalue = [481, 385, 72]\nclass = Medium Cost", fillcolor="#fae9dd"] ;
1 -> 2 ;
3 [label="talk_time <= 18.5\ngini = 0.482\nsamples = 229\nvalue = [229, 140, 4]\nclass = Medium Cost", fillcolor="#f5cfb3"] ;
2 -> 3 ;
4 [label="(...)", fillcolor="#C0C0C0"] ;
3 -> 4 ;
95 [label="(...)", fillcolor="#C0C0C0"] ;
3 -> 95 ;
114 [label="battery_power <= 955.5\ngini = 0.599\nsamples = 347\nvalue = [252, 245, 68]\nclass = Medium Cost", fillcolor="#fefcfb"] ;
2 -> 114 ;
115 [label="(...)", fillcolor="#C0C0C0"] ;
114 -> 115 ;
160 [label="(...)", fillcolor="#C0C0C0"] ;
114 -> 160 ;
279 [label="sc_w <= 11.5\ngini = 0.604\nsamples = 84\nvalue = [22, 69, 42]\nclass = Very High Cost", fillcolor="#c4f7da"] ;
1 -> 279 ;
280 [label="px_width <= 1476.0\ngini = 0.569\nsamples = 74\nvalue = [17, 67, 32]\nclass = Very High Cost", fillcolor="#acf4ca"] ;
279 -> 280 ;
281 [label="(...)", fillcolor="#C0C0C0"] ;
280 -> 281 ;
292 [label="(...)", fillcolor="#C0C0C0"] ;
280 -> 292 ;
329 [label="px_height <= 1366.0\ngini = 0.554\nsamples = 10\nvalue = [5, 2, 10]\nclass = Low Cost", fillcolor="#caacf4"] ;
279 -> 329 ;
330 [label="(...)", fillcolor="#C0C0C0"] ;
329 -> 330 ;
333 [label="(...)", fillcolor="#C0C0C0"] ;
329 -> 333 ;
338 [label="battery_power <= 609.5\ngini = 0.108\nsamples = 585\nvalue = [0, 53, 876]\nclass = Low Cost", fillcolor="#8945e7"] ;
0 -> 338 [labeldistance=2.5, labelangle=-45, headlabel="False"] ;
339 [label="px_height <= 396.5\ngini = 0.424\nsamples = 48\nvalue = [0, 22, 50]\nclass = Low Cost", fillcolor="#b890f0"] ;
338 -> 339 ;
340 [label="px_height <= 302.0\ngini = 0.48\nsamples = 19\nvalue = [0, 18, 12]\nclass = Very High Cost", fillcolor="#bdf6d5"] ;
339 -> 340 ;
341 [label="(...)", fillcolor="#C0C0C0"] ;
340 -> 341 ;
348 [label="(...)", fillcolor="#C0C0C0"] ;
340 -> 348 ;
351 [label="battery_power <= 502.0\ngini = 0.172\nsamples = 29\nvalue = [0, 4, 38]\nclass = Low Cost", fillcolor="#8e4ee8"] ;
339 -> 351 ;
352 [label="(...)", fillcolor="#C0C0C0"] ;
351 -> 352 ;
353 [label="(...)", fillcolor="#C0C0C0"] ;
351 -> 353 ;
362 [label="ram <= 2477.0\ngini = 0.07\nsamples = 537\nvalue = [0, 31, 826]\nclass = Low Cost", fillcolor="#8640e6"] ;
338 -> 362 ;
363 [label="battery_power <= 1081.5\ngini = 0.343\nsamples = 92\nvalue = [0, 29, 103]\nclass = Low Cost", fillcolor="#a471ec"] ;
362 -> 363 ;
364 [label="(...)", fillcolor="#C0C0C0"] ;
363 -> 364 ;
383 [label="(...)", fillcolor="#C0C0C0"] ;
363 -> 383 ;
400 [label="battery_power <= 845.0\ngini = 0.006\nsamples = 445\nvalue = [0, 2, 723]\nclass = Low Cost", fillcolor="#813ae5"] ;
362 -> 400 ;
401 [label="(...)", fillcolor="#C0C0C0"] ;
400 -> 401 ;
408 [label="(...)", fillcolor="#C0C0C0"] ;
400 -> 408 ;
}